{
  "model_version": "v1.0.0",
  "created_at": "2026-07-21",
  "feature_order": [
    "Time",
    "V1",
    "V2",
    "V3",
    "V4",
    "V5",
    "V6",
    "V7",
    "V8",
    "V9",
    "V10",
    "V11",
    "V12",
    "V13",
    "V14",
    "V15",
    "V16",
    "V17",
    "V18",
    "V19",
    "V20",
    "V21",
    "V22",
    "V23",
    "V24",
    "V25",
    "V26",
    "V27",
    "V28",
    "Amount"
  ],
  "weights": [
    -8.041793572939312e-06,
    0.6325823003923947,
    0.5496811504158782,
    0.2539934656282126,
    0.753691463185347,
    0.7235030939090441,
    -0.5225150156046617,
    -0.5176481567448526,
    -0.41788406141400203,
    -0.30223908734425364,
    -0.6838664761973821,
    0.4659788091818175,
    -1.0173057182242407,
    -0.3685132460946976,
    -1.3705235071130617,
    -0.1548661562504503,
    -0.6860273522814876,
    -0.8292192889359884,
    -0.2528974085108437,
    0.30896403503416564,
    -0.7740021214135006,
    0.04266350455975296,
    0.7551685866442016,
    0.4093458276150587,
    -0.02458028113331884,
    0.015589093814220528,
    -0.3730788719934912,
    0.10065552136291916,
    0.7634540322643519,
    0.007904234469867186
  ],
  "intercept": -3.4191166968289464
}